function [y1] = myNeuralNetworkFunction(x1)
%MYNEURALNETWORKFUNCTION neural network simulation function.
%
% Auto-generated by MATLAB, 17-Mar-2024 20:00:44.
% 
% [y1] = myNeuralNetworkFunction(x1) takes these arguments:
%   x = 6xQ matrix, input #1
% and returns:
%   y = 3xQ matrix, output #1
% where Q is the number of samples.

%#ok<*RPMT0>

% ===== NEURAL NETWORK CONSTANTS =====

% Input 1
x1_step1.xoffset = [-2.60767581099907;-3.16480088584672;-3.28284896494309;-2.26731654215301;-3.22374285050588;-3.28284896494309];
x1_step1.gain = [0.394721356432305;0.365755007852694;0.312146793525639;0.363288273324609;0.363715514650875;0.312146793525639];
x1_step1.ymin = -1;

% Layer 1
b1 = [2.6705858256694656738;-2.6112101323727006097;2.5051952715301872843;1.9712703098679371649;-2.2769013102098440982;-2.24731079229225994;-2.229937018218047573;-1.5462015013420169485;1.9481827751081048916;1.9271704656771873054;-1.3621535185977200477;-1.8030224573406175015;1.5384012245666256469;-1.216506284332209864;0.94651020882934788769;-0.76114802038866724576;0.75860329846218765848;0.25820924694266794708;0.11171620347727506672;-0.51646506556050908454;-1.5189819807487252579;-0.4211052284244078403;-0.35131162446063585181;0.46294193702175340244;-0.12782469780443186935;0.93250735122904793162;-0.31994163100207545503;0.35511776351026080878;0.43955672835253800645;0.63083500949066750874;-0.5394751833344345604;0.37295792977782610267;0.83125656790303015242;0.49503810671338493998;1.2217195552574511286;-1.3881223483133156016;1.0182752158950665322;-1.3351080203951328773;-0.82285451662137032436;2.0864971050359817362;-2.3260498491895416073;-1.8670239706049203132;-1.3429230467015789152;-1.7793104077030612586;-2.2236570209822748012;-2.2803162062397395182;-2.3156840150600905837;2.1984011793624635978;-2.5997659999164306477;-3.6008060294175994187];
IW1_1 = [-0.18299420753717782206 -1.8103671972357575637 -1.272636771132492628 0.81187762476465907824 -0.9877830796956322823 1.092918314919042011;2.0963319372566959764 -0.30336962411255319338 1.6926477237311665647 -0.42558384118993436429 -0.98785009863529638086 1.0308872735453107339;-0.75153480157552776664 -1.2890801010432249019 2.0904158191790140897 1.1182688371789557547 0.28104752806989263814 -0.29373363474229591263;-2.6006580242476067255 0.19076201583644961102 1.0428538539405134422 -0.19652522730266469564 -0.39296502304380964699 -1.1836731529032038512;0.19832934744613600619 -0.4347987164577212793 -1.6880449821324956527 1.2404075402815155638 1.3882219526878298854 0.77016088492657996945;0.68427713980892046486 0.77738530027973073988 0.1208370906596923644 0.75175973530095507869 1.7116772848261629925 -1.2243555896257845017;1.0934257985617825693 1.3375656633719532618 -1.2065915252905758948 -1.6348663640741349923 0.12291144086002173119 1.3369287365345039476;0.77689849516113684835 -1.871267308969806864 -1.4373892037963253987 -1.5082414384605329349 0.39168288634903397627 -0.70328978047432233467;-1.7968119912179107978 0.19420047693906691832 0.61689356347255364099 -1.2650038511991250623 -1.6764782147980239468 -0.43701178458722172993;-0.29981313294485484322 -1.6904398905656166097 -0.94961404792670389696 1.3033677584137104422 0.17269416139278415123 1.4248318661220915615;0.95167623856414829131 0.20632348783085185939 -0.61765061527113740425 1.8828715972669305412 0.91838234624607972822 -2.0917041009116292827;1.4386301674231987135 1.353570613620473706 0.3964712985204000284 -2.0817601314895117781 -0.25703958452691322289 0.79537873993132290895;-1.5034014514086562198 -1.215129090963608105 -0.83281037559043058494 2.1683564651029048065 -2.1076317814287799379 -0.61779685375243575951;2.4089388228444037487 0.055082753432158258755 -1.1191094163769577108 -1.1333354117266478678 -0.47488608987337421752 0.83920764176845252802;-0.43559439869727728523 -0.21016845141018972165 -1.3696436544171157745 0.12261545339808831157 1.7881648443165516493 1.5420630223184759178;-2.6324130795474314226 3.9746409365402324276 1.0719604424420201561 0.41724365884197572862 1.0425813099955589802 -0.62741022565589199544;-1.3164810544936140779 2.9468412003105548536 0.099779162088399764308 -0.13234059050897625798 1.1739858098910569417 0.57283093147698427305;-1.3790572637966966862 1.6193319495598696989 1.4787555086988068975 -1.225218519015736085 0.62806910237982682688 -1.3548865368939040366;-2.7116593216855604531 1.2138586776717965598 -1.1902110582879927847 -0.52949145376346251624 -0.97402977060898754402 1.4285298667349162205;1.0145727563293123197 0.92929885101069142905 0.2374329482332974417 -1.4611041026206537108 -0.72078511510078946412 -2.1112530365171493507;1.6111109729775703325 1.1418180261109385221 0.89578844019217274131 -1.0401784394824622471 1.8322214220474135615 -1.4177662901699881193;-0.71758382998637459949 -2.3146533114972243084 1.1015881759648094018 -2.9374290058964227512 1.8359769324986550121 -0.31298760939332548325;-0.92019435661066073529 5.2968602136978235606 0.81990400660810802691 2.830550750419691397 -0.6967311268014690917 -0.87127867634134770203;1.7524414944487625156 -2.5128073381574136391 0.8170184691274577915 -1.701205271234149885 -1.5137464133878075767 -0.58689401847764299802;-1.7571776582795715083 -0.35026452200215041355 1.3466858261248690898 -1.5084492439962573496 0.48783400760211775848 0.44521672178684451593;4.0438604678662599667 -4.0718721159425328437 -0.62042144900330586932 0.40991016790536061176 -0.18645596515579720975 0.54367429941469935795;-0.98377535335494747937 -3.934741711680513454 -1.3969340329236514808 -0.91527373609114059949 0.48990753500452266511 0.70911559305982796442;1.4537049397329191436 -1.2049803880399503342 0.60541951546276173701 -1.7448157448654761925 2.1440296769558822021 0.17286237451220562433;2.2397405833494139493 0.29480432918901960937 0.17726472045905233843 2.1640231120566584266 -1.9902785677750254312 1.0202482462149502496;3.5069151033182386357 -0.53896342567204813534 1.3642653107286457637 0.37294873233993691697 -1.4923311735301900693 -0.085825304226365362048;-0.19614785172876331165 -4.9013235423139036584 -0.26165431618130641223 -3.9687004350755032966 2.4039477205210832977 0.47632985503834429641;1.1556430756755455835 0.47793260576349216873 0.9319640087303205922 2.3051015753143953013 0.51077158220049123649 -1.265602885851634829;4.2825562843690621051 -3.1011471865607336262 0.21175609934217265451 0.077858040053682700532 -2.0885581601297391607 0.13579711872303690257;0.13542094328650874924 0.6703070293402051405 -1.5230760851707891845 -0.20761736528259819301 -1.7687325264141049441 -0.62045926411943541634;2.0817973293164540038 -0.81866666694221623679 -2.043201488825874268 -0.30229971923564713521 -1.4549744810102815951 -1.2497124390727407661;-2.1207024078004481638 -0.21884512426718027989 -1.9613283313574383371 0.77137669073415093823 -0.43799598219459318083 -0.86932464533806541596;4.2532721366684711484 3.060885951507906988 -1.069938605915765617 4.3008514316764525631 -3.7580765201657544416 1.1759170201634745467;-2.331928483200398361 1.2821652031499024549 -0.37248380105026324127 0.27163965569408426992 -0.53265201241476911598 1.5908162193353456715;-0.44177459184526673974 -1.9412988451237627174 0.10902893715864557522 0.49522334889599722851 -2.640863531760688776 1.4119626016304229754;1.4582915030490311015 -0.66089158969867356497 1.8757515471457570921 -0.22757382173314000262 -0.19038225736501665497 -0.84749705911918304935;0.0024136243325968281814 -1.8271908419303035664 -1.8561482764592032169 0.75408345681893607093 0.38268420482015330641 -1.4544435196290119716;-1.2802120297679091543 1.2266590592553909822 1.5050013539686146746 -2.0392461982972047707 0.66446714138152185303 -0.69430260162058898832;-2.1656624204632253239 0.77984648101396114583 -1.3600365741538973374 -1.3755286773153179158 -0.085946673180198149278 -0.005950913554772609311;-0.2161895321092300315 -1.2161622778892209329 0.93167162745360643239 -1.6072764205798282244 -0.071800549158314269649 1.4531367900227027956;-1.0595495218463895082 0.96028601984460804086 -1.3972252529622739559 -1.3457481026364095378 -1.1033573214432532694 0.25548866198924902182;-1.5253321413204923296 1.1544481862131759087 0.94362298430402247185 -0.75648715179380443541 -1.0208454092254846124 -1.0383766493028141475;-1.1168583597226220405 1.3446424526625300189 -1.4360752766767583832 -0.30955160569954159877 -0.73125412075590490169 1.2193509836475355801;0.69183363305700029677 1.3014884107936992574 -1.1305389949366702051 -1.6793981812852414315 0.72600799785645653284 -0.97925581344939061079;-1.7856733604499759327 0.001681559557693240118 0.39177799070398489079 -0.70753349017964883849 1.0958492486816155953 -1.4115094468063951183;-3.3047586098121235487 2.5188544208558072413 -0.10658236121666130047 -3.6961242323858733982 2.8356587770397294612 0.18615946839205821384];

% Layer 2
b2 = [1.5465543306992710626;1.4042053676151819985;1.1913579926875650372;1.1298854092851844388;0.9859691848682364812;0.96594756197430653444;-0.66990154284148817343;0.65476290073047149765;0.56091511336207910965;-0.3024554499944073771;-0.18159533437132932554;0.083084963052188501309;0.13742386867382294646;-0.07282311568384300382;-0.028302060778991545292;-0.37993534677548396195;-0.55491391888851515635;0.61050434173018897077;-0.8281240693158027355;-0.98552092077995068209;-0.9236137675915684353;1.1053149561290207537;-1.1875073313801973729;-1.3003716393973290266;-1.5733494047464511301];
LW2_1 = [-0.079378966116816537801 -0.042555459238417511769 -0.12022451171747433607 0.20919517991695657511 -0.24037331133443073927 -0.39775303210822621214 -0.0028912900514626149046 0.12587575109508872262 0.028022325978612625669 0.028347040760547764088 -0.028207966429053946134 -0.23538159939839062296 0.22295622596160841189 0.063285051687358193084 -0.11114890625309255257 -0.080858298799665981327 0.024570934859702180109 0.077558516856451556465 0.053060796375470731245 -0.098974884431902054871 0.15747035490137439862 0.3751505336669321844 -0.10592912868197185139 0.057247047895541983142 -0.057259498313528785218 0.28541734900292220489 -0.36296039929406503921 0.068704049703585248765 0.35702535925312328668 -0.24105143373280979446 0.30811229240029325283 -0.095952915378167372151 0.42160027082491174921 0.087212642066443107902 -0.16012246794303547359 -0.18270699106084420382 0.26809461539091911098 0.053215946720699458528 0.14232105188241692129 0.16712414870087266561 -0.29089976568328024253 -0.48923284896517760245 0.022967509361458100098 0.15454895283191483202 0.12777599261205951908 0.15412734343080053412 -0.056106190864262057982 -0.11297107582615270593 -0.0088113233739587227406 -0.045627133633187516581;0.20825920683672183298 0.30121863011065508342 -0.72842785761845485482 -1.061601349553634277 -0.034947664201999413536 0.26310104107073978286 -0.4395889006457402437 0.23231430410042905321 -1.0449629592396882938 0.43650152081134990789 0.1530064340030934944 -1.1165859055030740166 1.2875000273551373553 0.31818351355581914186 0.21311718303958857024 -0.77557716292393974467 0.45881818518937422802 0.15251704757538747659 -0.90139981846806960242 -0.18119692957164421077 -0.98053023252043636226 0.81306449592280627403 -0.072808550751540065948 0.4450220651385355386 0.53482549022366931979 1.7384262167508595098 -0.60712923690673115118 1.4389381977498179044 0.67403619811705306475 1.4441616760011877219 0.15461573647434403989 0.16054704176510525837 1.4320214346793052052 -0.50446359002796015147 0.69060927447592801443 -0.70044645187140441855 1.9968783996111287848 0.11228007110229587528 -0.10666912455990906761 -0.036024642410520446578 -0.68116363300442228645 -1.2498380481875088766 -0.16703476089242524916 -0.12636725180949540115 0.13310846102963980186 -0.14816866419543645028 -0.41662452703442215407 0.37475042695566213036 -0.20518337072080319872 -4.3211158854030973231;-0.26030647326439704248 -0.18777985753925338641 -0.33897356410939033511 0.018840957378287170876 -0.05630089107660326414 -0.13654860152361247838 -0.075038572831793298734 0.1538109945593710004 0.10173724075560423852 0.061820529659525148836 0.23222454461297856176 -0.073887782618852440586 -0.44131750809997921658 -0.17417299303163211177 0.26380857458409029404 0.38133371222395517908 0.30981271947395988553 0.040474315218351750167 0.17787405565487576786 -0.19274986736990584735 0.74137478646602761323 0.26398490723712680905 0.3034007056120194834 0.25901880079286787595 0.059973546323209260545 0.035484773383460718743 -0.57339503016734527652 0.075016246029011482421 -0.0313650664589803993 0.066819328423878970868 0.22247770785910001012 -0.2032666223787689963 0.46078832527815138942 0.13489576443423320629 0.40269143085514008673 -0.2536934285147177115 0.24681570025206076013 -0.18948385708018614104 -0.034829633666562088978 0.31954274585167979916 -0.47972228522858384459 -0.239568621581220359 -0.087603220543220977623 -0.015819442979570160629 0.13173209358603582553 -0.18137070840975694219 0.25059493742610799982 0.013523762826332328887 -0.019790911315143665944 -0.17269645176315662205;-0.38661012321855253715 0.25963845649596278831 0.21102249586410837257 -0.23888577054292278734 0.20039403849826206705 -0.027976545505510201639 -0.53886098531882609119 -0.12680512642324553996 -0.37531856321900708418 -0.058717421693834134788 -0.20137933961965173713 -0.3181399216315053402 -0.80543382657864548424 -0.21517680276868134115 0.25135864987452172237 0.22587040206853867264 -0.2638711111053030911 -0.38711599862701684405 0.076392328597483960539 0.41978686760596756189 -0.70996270563946939358 -0.24675877553397185249 -0.33931520446373614197 0.039081193818427208131 -0.35286424499479407402 0.19102858070251310663 0.048032138833254689469 0.53660243266199270096 0.51303227677979301724 0.33745585240536218885 -0.07068222265631009249 0.3574473000441549253 0.89895204687533869503 -0.17230005467058806534 -0.078470803396198607338 -0.10609410092508210488 0.86723802469849753383 0.013092375641849347823 -0.34607503487716217982 -0.20196133184974415786 0.26069836433699544731 -0.42464600913027061857 -0.50022961634154705646 -0.24499596187597533214 0.070397575184702090856 0.26639737390487572277 -0.39083160802352867602 -0.088485130030330830242 0.17775778956259835617 -1.536700865653023218;0.13048263510140001298 0.08045696732300995635 -0.25857061861000146807 -0.097437064794447608707 -0.11101849709895425522 0.014580224264640537918 -0.25172855649988451487 0.15949584929495233543 0.23591998606663286409 -0.09086352169732252182 -0.17761884673169517357 -0.19898084644898833551 -0.2047693870428929086 0.5474951153396162562 -0.06605544659087478343 -1.3036478270306064431 0.21767646612733460021 -0.23874992442691397865 -1.1168296336127407908 -0.15547277581795057588 -0.8018427762224032973 0.83866212774272907993 -2.2502334243631971766 1.3508664789912818716 -0.19808662186782730052 1.6721395619013823541 1.7950163005252084414 -0.030165819807235087768 -0.27706440221100953059 0.44998860544779439863 2.2491598907840995025 -0.029434717554965204867 0.88296054506048637922 -0.073413119960136372089 -0.010247497865888027455 -0.56420491544286599517 -1.7324946395761942064 -0.019534180204669380349 -0.34368004280047792509 -0.10520711275432949316 0.4077542695550336882 -0.29354739998237661114 0.46842124817820596228 0.42213931961095685352 0.23861424360568411762 -0.16499172275580717417 -0.24573937388858821396 0.028028797225369474211 -0.058489629817801855327 0.15268111434715281316;-0.18775835101859206233 0.44658832342393095516 0.10687165055690246718 -0.034563819937483586386 -0.10941057035924989238 -0.23340382921347477274 0.23739310475845051829 0.067528581573090648571 0.15543004588506215136 -0.068239299699723574011 -0.34979866275248444607 0.97714950774097208974 -0.10128762026108492633 0.038148948627992104732 -0.22489703814149189509 -0.057055494367732016714 0.058075238353114323753 -0.11988759494707582065 -0.37392353042425147125 0.07742431914664330006 0.22444637658005769931 -0.53708415679346810379 0.28799990307021755553 -0.1500672290265377129 0.093556438353431428667 -0.060848930952130161898 -0.16378382193387652777 -0.24848533345826012697 0.32868360136554192197 -1.2692566535488358781 -0.13814207668371247806 -0.0087196955098862490713 -0.077183446197814475909 0.19998057114397688183 -0.13200719291736937033 1.2074632218824781216 -0.62154075342605796806 0.23775689757403345448 0.81192173512255605416 0.43614507443325462033 -0.27476046616187860261 0.28005021768817756067 0.092273828327784607195 -0.038790340369443149227 -0.34654664158012266073 0.28066890011298528673 -0.17799487182350468006 0.21744546001401077184 -0.055221262141488085262 0.69463012251114208961;0.39819645491616972866 -0.33303378748213596783 0.36064713366168910103 -0.54789367647405562423 -0.40845717202895431841 -0.14097006632668543369 0.51274516094161515234 0.19486216419678037415 -0.50952376856164793839 -0.073418339512658165047 0.001752544057367964956 0.15995934444001619346 1.4331965889109716805 1.091344676904826505 0.34893815133521682847 0.17546591390006374689 0.95416831286086467578 0.73818245189886100288 -0.51405695992874067546 0.56448150833163834861 -0.38118242024674048318 -0.12901169610885421246 -0.23847058681680657899 0.036292294992303048007 -0.3223252273713542726 0.18050705407982317596 -0.64809955310102351778 0.60933716084649669487 0.65841112799985912485 -0.50241998148379718447 -0.046870646130186870149 0.59434069207616502251 0.25710123075171903428 -0.087129420822022726756 -0.51074842145794352444 0.33744833652770311883 0.79743464851465506449 -0.0062212804609371660791 -0.00027722733199087370992 0.11531820243154386474 -0.77445123354241729441 -0.49513292032251343677 -0.3939456597207430244 0.50592826778523281028 0.055180547652694374172 0.097112445347352277514 0.068530458969912111389 -0.21257830210195685638 0.13369179238256068132 -2.5479482946903582175;-0.047634253460849151907 0.10325287823156971412 0.27791622811597410658 -0.13734085398581000192 0.25567512951129134358 0.27872218844478047206 0.063049991414908065912 0.21338109687931366976 -0.34811289974803388825 0.31816716949078360788 -0.13628816267201318557 0.14975205991420756368 0.43180914270666170829 0.095620484914152814593 0.14058737004337132359 -0.64175080025437891695 0.20798136475255868394 0.19563301035427532737 -0.085086036802221196029 -0.1598409622497372895 -0.08134147891468307412 -0.20645311968333057706 -0.59015352178698643471 -0.03905605455857584507 -0.3247544840543022393 0.58148113950104429737 0.24546212755165522368 0.44566171586009373229 0.11223116573615618541 0.2140597875639652925 0.46495050585659253306 -0.34872347823517152454 0.11949332310958067638 -0.16065291077880958226 0.064757655296091176655 -0.092454848186768329166 -0.86010909406906033148 -0.31464646614290497917 -0.16262123809605463776 -0.0033439003015570747945 0.20448817886677833622 -0.30442659106190966822 0.2996889175298150243 -0.059634785206736859453 -0.18765413183976961675 0.21247755564133205541 0.30753316152386600546 -0.0028397237630043824924 -0.22042439966383398087 0.36041036827055827896;-0.32512535491155775125 0.063716553597269035003 0.32648071776820020151 -0.095253311765396711519 -0.11831737427726340961 -0.29506280526184475166 -0.095590614556371675259 -0.6266298449154216188 0.01336185198919066959 -0.12610898863876307541 0.62474046610754263575 0.0033586897699067874007 -0.68357388803385821241 0.143823631392615503 -0.19573028768365755004 1.9387033424358102174 1.1681267588363035692 1.3497854023436512971 -0.29611646934463448089 -0.084978158715976470639 -0.31686959235566847237 -0.83353891708266947269 2.1180609830466998744 -1.0496939631342327992 -0.35746522715541945159 -1.9273580790998499079 -0.19601124416823564878 -1.5875924573499187176 0.45987738855909399138 -0.20244908381338688752 -2.0718438706596700172 -0.014776333213782487375 -1.1884346848063920277 -0.39880771819991783778 0.050509519020360091335 -0.045658918649118931943 1.1493973258185619102 0.80707268881294236262 0.3738200143231474315 -0.68251335440229721208 0.36698970830045046787 -0.14670365413969838064 0.22336952141095633984 -0.61111921844102845558 0.19331363015798327942 -0.3128811391852403534 0.13607565377223601599 0.10738055911421609534 -0.036320636771781940333 0.02396069362027504826;0.21726096798180810632 0.18726081426386523288 0.16426383006760938987 -0.1755744254769731616 0.047818625067460061862 -0.027499666708011589328 0.87430901498377677772 -0.6715465474060340334 0.24405462108735453963 0.16513556489877534439 0.28881567886388803679 0.16483861899292637232 0.37542942707216464537 -0.2360711642814587452 -0.1630038832205579491 2.1182858255068048869 -0.3647697912140209775 0.075549155078266025387 1.0237346350431533182 -0.053202334453101129963 0.20263372749605459977 -2.4234267243816680626 3.7303249710466950262 -1.2326417393301583036 0.19609949116092056931 -1.9993931658704324761 -1.9215667802592002467 -1.6240030102504408038 0.70640802153043946721 0.32525640504795128027 -3.8419749120499142592 0.75483155014236447133 -1.4585440395239797073 -0.03397462096650077229 -0.041281957338671043667 -0.0018861088595540902862 3.762286060184652392 -0.33085771812349701326 -0.05949109587548524064 0.39372558162303827878 0.1133479425089873871 0.13091758286152979651 -0.34178507458664492136 0.41592548347082763938 -0.024983950605182402016 -0.0095606710417960698301 0.30587234756162101634 0.28058119915227353047 -0.44919154570215508171 -0.45367615624711654654;0.36937389280549492998 0.50130195740116356706 0.073838998034289088368 -0.31751278793249959609 0.20566058045957480438 -0.17037103625806448992 -0.039618353603692223197 0.16717121341545587709 -0.24642294758365970719 0.25343663144799793985 0.52901409562540591125 -0.7127953885709593651 0.43906845141341488414 1.0512594484447297383 0.1716793668054472366 -0.054262702296929546386 0.729436898953555235 0.61357374243732787367 -0.56737354142093543441 0.019563942404630392524 -1.0971146172502110883 0.31409250175720548892 -0.39541825613503212011 0.23700173415519451559 0.63793799936374961934 1.1396903061051548711 -0.0024012708499464019418 0.20320459541635027545 0.0089295138213947924943 0.96796869874458124627 0.72086009431557362959 0.1890424108139424908 0.76509752703722511136 0.062691981548411088165 0.39643313655771472703 0.5203233079341128553 0.64995829317098818834 0.26160656269213589109 -0.36344928979018292781 0.29738515171877466514 -1.1852961504552326222 -0.31194687262829057239 -0.18109185979080316686 -0.17531042449110725845 0.13801322574503316343 0.14736788056540095493 0.24740303235967286977 -0.13391965442777759021 0.14231433358281875279 -2.25847995217204911;0.04761753776017250972 -0.48062406982770844444 0.28443329457416144379 0.34146634745160309166 -0.26795393473566414544 -0.060756019346228616607 -0.74226205344223761262 -0.21220203439126161804 0.13901640350154173542 0.18170324789472988569 0.075087970248568142173 -0.12169877042944773904 0.32258764244940718591 -0.20342546714451995027 0.15534664221942948159 -0.18240326605134027371 0.38468969519989926198 -0.069379461876465431391 -0.066039219764092271792 -0.35405405323442573629 0.06904176200979959821 -0.52219360092071132051 -0.15900394463159828184 -0.18099968787644665769 -0.085959932039880865284 0.2236411074614055583 -0.22904750039795135352 0.10234716909517453665 0.069412790806854016146 0.0064840383815384979721 0.14200822344460062308 -0.25313214745872064659 -0.23203900390816575849 -0.038789788110835880797 -0.28487799748796566179 0.0018735727430264905932 0.0053970369108097375477 0.23327761667980645433 -0.2131891245344682273 -0.13495875350626834743 0.16292249944764289338 -0.00032305325659275985553 0.28129331918598726725 -0.25896582223421366065 0.3111726871491140578 -0.063560554176899972112 0.3551196335014417671 0.074687288043983196539 -0.20933302334092027119 -0.24829788963349666564;0.32091868327015593554 -0.41327283078726972931 0.31184564971591099969 0.29784936081180007905 -0.22533985519624097349 0.024685335639278323944 -0.23761620807232694541 -0.28419986973751520942 -0.039791395470086685093 0.0061506322025324080063 -0.04317319223726260452 0.015050276982493096881 0.21332616585404709508 0.13891773800298276575 0.36962555245530637205 0.0013649030444000086193 -0.09730540786146751886 0.48702436786577124606 -0.27991267732734442797 0.39203730322417168486 -0.13655287409613700578 -0.19613710339476975175 0.01906985306429438698 0.16495380112314830812 0.10502757402302315137 -0.11880175839697257323 0.12690633319850269656 -0.052357658412607602227 -0.07041253010287742975 0.23827156758102846501 0.44617397377455941809 0.17922188253590376483 0.24133148588892722186 -0.17113292951704686673 0.092292339539322629238 -0.18088636537385527348 0.10510238041802719144 -0.2650403684412452332 -0.36915473372487067616 -0.092369896395673598 -0.25115378148114736456 -0.36651326675789375198 -0.28223319096810334239 0.19446560790857081447 0.20520380036390786782 0.04951042440248884513 -0.45944738347794078503 0.091226858678168668004 0.1494555376263805857 0.13755171840966695651;-0.14766578518159817479 0.42998521865599043101 -0.25792674962449252396 -0.14497946162768862721 -0.3589311983670342987 0.043060903679743509076 0.0025513107317874910568 -0.3864641780566447915 0.39449241355479042204 -0.058937270633372645934 0.27458204455934803745 0.11580078872126435552 -0.25822240027592585632 0.07983641343213856989 -0.33818296366347955217 0.6327376751644346875 -0.14559044361752132568 0.13331661806109840196 1.057185820657996933 -0.45136040243563113616 -0.34654068769386964233 -0.66400151697771581105 1.7358006206955927109 -0.36352880351109401191 -0.35034426330712981068 -0.65223172000744922272 -0.30202699259183102276 -0.91073753256922507227 0.7942152726149306341 0.46724559776266294531 -2.0952080729848225893 0.40743245816517265068 -0.11711198770647704426 0.13167832960199526982 0.1643237461746376582 -0.33105553722181896292 1.8183102297959417015 0.03268572745902350446 0.095809091145061073269 -0.067835938623391822677 0.10605827048845549443 -0.2865111292278228472 -0.11798582260558779233 -0.45363542692752473195 -0.25978813389788485422 -0.18744741639879586304 0.16640171224161481867 -0.12692010648053669852 -0.37142433743798064505 -0.12119128989488567316;0.28552907961634210743 -0.3266241106394182081 0.11588027450038614063 -0.032941792213835877079 0.10711430995265247557 0.037657633487902818226 0.030682790865354223758 0.41451250724944288528 0.077488312223833455405 0.20599080267569230829 -0.60023154825722280226 0.018291440203214010679 0.14452089016334102034 -0.068270871074697980774 0.0010968244164370377809 1.8701189884746534098 1.4536963035481615947 0.89292309414598958206 0.58003475025874162707 0.63247160576488448136 -0.12110169300899893685 2.2565531763445854097 -0.1465361620043767743 -1.0008196892343332873 1.3198955684233104613 -2.1402236677560271261 0.21442640600264056827 1.1583871777657039903 -2.8008246496686126648 -1.744110693503379661 1.8713706527896667442 -1.1649001517480868095 -3.2405778190439709086 0.090516318623518110531 -1.2816870721791904231 -0.35273513787758498106 -4.8150887183040884665 1.1904308072644604888 -1.6807320397058482797 -0.0035495714133034050181 -0.12896348982269392747 0.2015853270388951457 0.71822406507923419738 -0.36312810962088271083 0.53116398344425641564 0.48566375706900938303 0.22380577037286819575 0.10789080092567115976 0.66028891267038192225 -0.86610732818253088894;-0.22025721371061010578 0.24028181755551863974 0.13022111086455892548 -0.25997257617073427083 -0.077307788017123360569 0.0060000123711579315261 0.17906050328172590236 0.0035523954252478606546 0.34091178404586069961 0.43907488315053594397 0.15633350336209442255 -0.31785485315346095891 0.089162066151746405263 0.049607927655167437242 -0.49207816909118634596 -0.1583902796441843952 0.29038188183449781254 -0.065778460770841970517 0.16295586245398310798 -0.18062533246618303617 -0.0053111636317988092718 0.14415117596034043856 -0.1242492257889702828 -0.0021044522864172004323 -0.20681716939568370317 0.10131523089853645969 0.354478667979636064 0.35677177993381914423 0.22230356222007147116 0.074310507414789478409 -0.31627550496158313154 -0.24961217811846941883 0.07910253569024257303 -0.038265014405875666381 0.11040900462701536133 0.049582892202122468006 -0.12402863785543567776 -0.22048313333980903983 -0.030682868688043977989 -0.3283103036075692982 -0.11219633029593399642 -0.068064528762213527546 0.2166379948118926646 -0.10991684933589458695 -0.074055748621727368608 -0.049309934944857157502 0.36037593036172821392 -0.17883718293047085046 -0.20185187968899359623 -0.13554750008147581353;-0.34693229253211116392 0.52507751105718414308 -0.12220849076234883979 0.2937075054608582203 0.137720465755129029 -0.22073538003077911029 0.1830352055073523887 -0.23057163807335454009 0.079310881902762253581 0.18159608399759605279 0.1555166044932941305 0.19360860309245106481 -0.38896629378399311117 0.064797613646929735909 0.21117392328774536869 0.17817722081317227678 0.27872595056617771592 0.35917069558099340432 -0.27296654797210923027 0.17261900328969387308 -0.59321130877417427296 0.27830790748721795369 -0.45023984828458052387 -0.068337014840810936245 0.47437890703691953931 0.16695730523181406824 0.93970743997196592989 -0.16229186074032903031 0.31668904758776322828 -0.17284067849267070738 0.56162229156146659115 -0.043996845387968969154 -0.0057236247444073804283 -0.073352796837748965308 -0.31265913611100082381 1.0501207360750675068 -0.3711953658539597356 -0.0093976232342474434051 0.70597487754728394105 -0.1034028316334495573 -0.63799410614640272854 -0.37819824615342784169 -0.1787977547754039942 0.0025223698371199358703 0.14959466772103877097 -0.010047444453341835419 -0.0042532495705610816328 0.21876797508262488257 -0.19303183012215052727 0.31196087068523831176;0.1815347194513646234 -0.23979349475140154802 -0.025758017464088418108 0.037857749138027363411 0.038162603579855257363 -0.30883800935196287218 -0.28394039501473211651 0.54633591790928770493 0.091876049329296327617 0.18010889472402108469 -0.23206946577786022323 -0.22464588179741057372 0.17986184651287714931 -0.16878303792251492244 -0.23113906355743643606 -0.60933039361958740709 -0.35222508354786541407 -0.35644167102949247949 -0.049532198064968314954 -0.64928721301264769039 0.0063452633404358430025 -0.1116223670099452947 -0.63127996386714080312 0.92147906742560559135 -0.032074234633577274056 0.53196144269675971206 0.55397485805782853419 0.27718844044572016339 -0.28963859510926159846 -0.29896264417936868618 1.361683478807154124 0.16337348673738111282 0.86697943514008701804 0.22378622397407338385 0.12609644289293273078 0.12551871465806793693 -0.38057611409539865432 -0.78646686968218226799 -0.1729680342637502366 -0.42629802939837646569 0.46619018510568438485 0.17612722770524358307 0.15615002277885228765 -0.095588400972066209227 0.4048461550354647831 0.058318802783161524661 0.011010733228517963211 0.63998525663904626271 -0.049853016398109795126 0.48746510219727245961;-0.19826082860054841661 0.24058322286422856306 0.068124892619119192805 0.079283077486180020266 -0.28065807299105560713 0.12400562223327007971 0.16842277486196302605 0.1017431106510335026 -0.018922534059803958195 -0.41985853076005646978 0.22155534701971349443 0.36517246938134106937 -0.040726459933954919923 0.01310786397462486777 -0.36799412718802504418 0.14614656380737578445 0.11182997018910058318 -0.18792804464867679526 -0.086121171343367983186 0.062614200399748534687 -0.1025666368658185168 0.18510770131691051121 0.18422538147728143021 -0.1107110611829806579 0.014168337166244661732 0.18200874853522522323 0.33609576263809931573 -0.052296780854098390279 0.0059051065116610575167 0.2981148362209942726 -0.23120604541730635506 -0.30698036396868799702 -0.24574646238442443558 -0.16616675567264624358 -0.047458765435741817607 0.31484327940792367073 -0.0099246570619291370891 0.19974345880295632516 -0.22187034613945372241 -0.14793643660285543673 0.010495223716435879077 0.17783039944174644509 -0.19462120083411102445 -0.21688367150986792575 0.041304421239302349655 0.38219105012667659027 0.002365621643695577786 0.20153459921772381991 -0.0037783618926906527812 0.098835804814031216758;-0.077331898360180076346 -0.13042944370017237055 -0.188931682378102761 0.34015799448301808905 0.2455281615189379707 -0.48415756201334209097 0.074507100485216443131 0.29925720566743196915 -0.047697014088705927404 -0.14250741235915442839 -0.090439244759065492985 0.4053601807986058625 -0.048929393172557934799 0.11274745239743982905 -0.38942890407351449245 0.17057381054375761464 -0.1781388132343346975 -0.35282096650875477417 0.071302123988795249043 0.30482523644829628839 0.0094092704483631304374 -0.13262947281580114711 -0.11005576475717215867 -0.02717191829025315114 0.18172308559766939262 -0.46029489522137728708 -0.027108195407780887043 0.072338532898788610037 -0.48368029900632525386 0.073391663281480570835 -0.35699138121862444839 -0.27114509853852153398 -0.24211144566799092104 0.055889463994025528892 -0.37082152357851277946 0.39906705547171461568 0.048941100559316788599 0.058793189304322694688 -0.013779279667234212506 -0.035391530977342627873 0.24157223743516717529 -0.012418659868844432459 0.21724532613141608883 0.098977163423035655065 0.082238892414260605923 0.3093716592448899072 0.3567500845715153579 0.21319252352104170467 -0.12911123776481675529 0.51769312262763977905;0.10575001857904289815 0.10718953877339805481 0.46813836405703052046 -0.28202438626403386612 -0.30761500279043912931 -0.30331356165797768165 -0.30265803631064003287 -0.11246301480552783891 0.3944089387373714839 -0.0027700401815506708533 0.086166393788100287265 -0.56860974861871182995 0.89680162891929748881 -0.15175718330415149948 -0.36938576425615959886 0.23211465446252971256 0.037486309891832991781 0.21529425109306685182 -0.55826704912407476566 0.064859139417617756029 0.44182867716679152803 0.610279627633132149 -0.67256237152740916407 0.16813268276273021784 -0.049024955059226500709 0.1749203074170883887 1.042197004498166546 -0.39809145827956993191 0.026229198287144563778 0.25192770803331904217 1.0163717888690244617 -0.049737304093041841135 0.070480570323573590863 -0.12598754337956261096 -0.078594712075408412755 -0.059010586581466926981 -0.19639411354299382562 0.17752966565660160958 -0.33692469085240789317 -0.2376561648967862872 -0.29108502704541766581 -0.56781823134609521464 0.040892659608917178438 0.23740671515639516498 0.30087570632052651476 0.20747279089566791899 -0.075037488187195744427 -0.25063608260632558311 0.13580285828152863226 -0.70205123572417338362;0.065052979519296380562 -0.15447664821948559055 0.32459518226762851256 -0.17570644182024222624 0.18625470939766256007 0.13467483911297203902 -0.24569802340969237875 -0.2059233690577755016 -0.16030956046632360845 0.10567930745697882988 -0.14478522539171750916 -0.061062829707320333272 -0.31292803301116062231 -0.13744375433856931279 -0.2814519060905366632 -0.17453882054646027711 0.1518862821962349563 0.0047425020348466316589 -0.32082161685878179957 -0.191939375170875004 -0.18622724346968394515 -0.22385240005581663603 0.31373510240597257681 0.3275012533655850544 0.041044495787448814772 0.237227954549113218 -0.34401363548815133697 0.3613696625313040367 -0.34689173093078190524 0.31484407679969800276 -0.34267842799696851541 0.11331013378656298873 0.24784263582378243673 0.0061912873568045288103 -0.12133816548652698319 -0.22362030679076727591 -0.19153837974000245681 0.036675432039113720073 -0.32961755965433303661 0.14047341411464261962 0.58936991904741131698 0.25549907412161393383 0.14524972416360357186 -0.19487535409803111164 0.11090113491249560529 -0.19138573026028501967 0.042733842727130190442 0.2452851456667282104 0.25515206843955118288 -0.057655091702030938916;-0.0064465090867829050875 -0.77429004269027223994 0.23974588518629477707 0.28577006495999174307 0.18236736925165500378 0.16231773125320667073 -0.57849182519574571248 -0.12922146292664957179 -0.0075512970683168419844 0.29650257258673273775 -0.32062295249561378885 0.12429179026178431566 0.19811441068825413891 -0.52091880658803191295 0.11395098030064687578 1.5326912217590342724 1.0351951215910761839 0.78773997769097270361 1.1069331392215044918 0.38855959268429396403 0.6261370083177395518 0.61582302046573744736 1.3109159157096115234 -1.5995773441258582803 0.19132202038706325187 -2.6350638491602560443 -0.69532769680299655324 -0.10311618444162150288 -1.3184402570105404617 -0.9881986898034693656 -0.28982261108796458782 -0.28243519118267257362 -2.583021349762409713 -0.60423529133618969489 -0.81501818893400834742 -0.70259576217914232465 -2.1973333868781996792 -0.0030263537191172764328 -0.76743251927947220281 -0.097373280534742340242 0.067228788321901988834 0.26027602988274695095 0.72205588035283518877 0.38025994257564571521 0.26162948720215506437 -0.30289716913826514322 -0.24857672371542999246 -0.037580714816569459058 -0.1604691753976310864 0.72604378775969402593;-0.19262648204854931899 -0.34646641709680908727 0.16837181225686248531 0.32333872199760260724 -0.33392315558528623543 -0.15023841846195865046 0.47610399728137570152 0.7535924299675800242 -0.29282394739615069668 0.064840237498439701191 -0.14270097466436157396 -0.027252895028438459124 -0.58032535256780259925 -0.11570741925817697171 0.66095773469765195518 -1.1785596773587747599 1.0512611566296010679 0.86867716501753067249 0.22328704862425030608 0.40993312433889872448 0.44382501140196950473 0.95125667169066774331 -1.6149227714584444282 0.33651938535851427803 0.50856187574043643096 0.46787351285710726545 2.094606471604692377 0.0825628594080504985 -0.91285517025533835511 0.11425791826852665922 2.1307121940230699941 -0.82776580212259753822 0.01245780111479851196 -0.30137883430070128155 -0.17877749814049812005 0.21296541051784567689 -1.360823810709866688 -0.067228960419439126595 0.11619522808164575722 -0.064756932697703856183 -0.031601579150895300896 -0.5256812999127411512 0.2856957552747643736 0.57543819513952898514 0.171652425287096011 0.32466249165622751427 -0.37171276829245158968 0.78832613035365683984 0.28858007316654366026 -0.39134269018788581107;-0.33832606102616047394 0.31471827995404472178 0.069561477702778803933 -0.17924897638510539633 0.081611951245478028816 -0.15767433312823764258 0.074735782433761901999 -0.26352044313753897331 0.12110996183518672742 -0.31656426510364693572 -0.26128084596370343418 -0.13848033168677423288 0.27450895193269347905 0.13581569232618648235 0.19706470068302484044 0.2657940594230700504 0.26661266737087552237 -0.16156493007880765034 -0.11945063298988180256 -0.031802468965239409637 0.22660103104951276332 -0.027910761070549600094 0.26988289517165986453 -0.17299492310069797263 -0.23347106994172261984 -0.12640144811644099532 0.091521189278711584381 0.15278379932122038154 -0.10967536792821737379 -0.36569487347478829564 -0.28371137788470890406 0.1939901349519514151 0.23102370695685098267 -0.040845653107233009793 -0.16026118886584814205 0.26460140037383850231 -0.10395356396035140834 0.058591098841614730475 -0.11726335952074043445 -0.18015902123783175681 0.27769579005934263982 0.13996489265793063406 0.30966227881042274195 -0.23451140351220572944 0.32297549704720968089 0.40016167563587645706 0.26501852841409445638 -0.35579662540556084016 -0.066274840130119305748 -0.036181077959492921603];

% Layer 3
b3 = [1.0467266823343812643;0.058497092112033244327;0.25520099445712057795];
LW3_2 = [1.135856248842893601 -3.4070584392822755859 0.35225087235278396136 -0.59561170747642100398 3.9062888297361837431 0.45985064007677556308 -1.6224276001713437978 -0.28227370734642159844 -1.477911417819729456 -3.8743662130158904588 2.1214116391381141469 0.75006007437574140351 0.23010210605277628404 -2.3655039389110239512 0.38775622958837485665 0.039483975772528975834 -0.0096928044693461359177 1.2599542705300206258 -0.58676909625579798391 0.33202617361954656072 1.6289241275032149137 0.57664742298993043601 -0.43465379604381648715 1.1356406936284102471 0.56771280889959518934;-0.21954070865861244344 3.0157374572453243822 -1.3606036582274498858 1.3517306272157478819 0.37127858062538199313 -0.6988313773219777536 1.1009728671214320528 0.81098207589173110232 -2.4262896344611095678 -2.8489310034747807876 -2.0745062677462966505 -0.69919880235297260374 0.17360370709810687972 -0.22756931873020996848 1.1256121235717639895 1.4897104027564702644 1.0890860498429713044 1.1982223279611377009 0.0099241037489000948069 -0.23665189708479647535 0.15504945985299137257 0.1209672930056829715 -1.274939763619457489 2.381647090089815233 0.83913995912985051007;0.38513165053985320974 0.35881958492574328456 0.49714000282630449457 -0.7676761596633163709 -4.1046799560110978078 0.1909263720793308583 0.50500375943158537506 -1.5586555774472961033 3.8996699999896042854 6.3472751617735578833 -0.032220394468257793075 -0.0072226449832866823977 -1.1932938920341695788 2.5717416642102581825 -1.5212640405718360626 0.039759335194107098266 -0.92918186842588512686 -2.223869682857981811 -0.5789810166474126385 0.98307754851490425363 -1.3954289685358807205 -0.30260019151579642394 1.7048907469537071258 -3.5247744561848284306 0.066222852867360237905];

% Output 1
y1_step1.ymin = -1;
y1_step1.gain = [0.57891966239597;0.606286518290167;0.642436460828386];
y1_step1.xoffset = [-1.73900616900642;-1.57685601438441;-0.747642667882502];

% ===== SIMULATION ========

% Dimensions
Q = size(x1,2); % samples

% Input 1
xp1 = mapminmax_apply(x1,x1_step1);

% Layer 1
a1 = tansig_apply(repmat(b1,1,Q) + IW1_1*xp1);

% Layer 2
a2 = tansig_apply(repmat(b2,1,Q) + LW2_1*a1);

% Layer 3
a3 = repmat(b3,1,Q) + LW3_2*a2;

% Output 1
y1 = mapminmax_reverse(a3,y1_step1);
end

% ===== MODULE FUNCTIONS ========

% Map Minimum and Maximum Input Processing Function
function y = mapminmax_apply(x,settings)
  y = bsxfun(@minus,x,settings.xoffset);
  y = bsxfun(@times,y,settings.gain);
  y = bsxfun(@plus,y,settings.ymin);
end

% Sigmoid Symmetric Transfer Function
function a = tansig_apply(n,~)
  a = 2 ./ (1 + exp(-2*n)) - 1;
end

% Map Minimum and Maximum Output Reverse-Processing Function
function x = mapminmax_reverse(y,settings)
  x = bsxfun(@minus,y,settings.ymin);
  x = bsxfun(@rdivide,x,settings.gain);
  x = bsxfun(@plus,x,settings.xoffset);
end
